<?xml version="1.0"?>
<opencv_storage>
<cascade>
  <stageType>BOOST</stageType>
  <featureType>HAAR</featureType>
  <height>100</height>
  <width>100</width>
  <stageParams>
    <boostType>GAB</boostType>
    <minHitRate>9.9500000476837158e-01</minHitRate>
    <maxFalseAlarm>5.0000000000000000e-01</maxFalseAlarm>
    <weightTrimRate>9.4999999999999996e-01</weightTrimRate>
    <maxDepth>1</maxDepth>
    <maxWeakCount>100</maxWeakCount></stageParams>
  <featureParams>
    <maxCatCount>0</maxCatCount>
    <featSize>1</featSize>
    <mode>BASIC</mode></featureParams>
  <stageNum>4</stageNum>
  <stages>
    <!-- stage 0 -->
    <_>
      <maxWeakCount>3</maxWeakCount>
      <stageThreshold>-8.1499534845352173e-01</stageThreshold>
      <weakClassifiers>
        <_>
          <internalNodes>
            0 -1 3 2.6486814022064209e-03</internalNodes>
          <leafValues>
            -8.6013984680175781e-01 4.9253731966018677e-01</leafValues></_>
        <_>
          <internalNodes>
            0 -1 10 2.6239576982334256e-05</internalNodes>
          <leafValues>
            -7.0936185121536255e-01 7.6253843307495117e-01</leafValues></_>
        <_>
          <internalNodes>
            0 -1 2 3.6354438634589314e-05</internalNodes>
          <leafValues>
            -5.9817081689834595e-01 8.5608017444610596e-01</leafValues></_></weakClassifiers></_>
    <!-- stage 1 -->
    <_>
      <maxWeakCount>2</maxWeakCount>
      <stageThreshold>-2.9791298508644104e-01</stageThreshold>
      <weakClassifiers>
        <_>
          <internalNodes>
            0 -1 7 2.6803861837834120e-03</internalNodes>
          <leafValues>
            -7.0760232210159302e-01 7.9487180709838867e-01</leafValues></_>
        <_>
          <internalNodes>
            0 -1 0 -1.3879720354452729e-03</internalNodes>
          <leafValues>
            -9.3491083383560181e-01 4.0968933701515198e-01</leafValues></_></weakClassifiers></_>
    <!-- stage 2 -->
    <_>
      <maxWeakCount>3</maxWeakCount>
      <stageThreshold>-8.0037081241607666e-01</stageThreshold>
      <weakClassifiers>
        <_>
          <internalNodes>
            0 -1 1 2.3399121128022671e-03</internalNodes>
          <leafValues>
            -6.9942194223403931e-01 8.3783781528472900e-01</leafValues></_>
        <_>
          <internalNodes>
            0 -1 9 3.2374700822401792e-05</internalNodes>
          <leafValues>
            -5.9195387363433838e-01 7.4831712245941162e-01</leafValues></_>
        <_>
          <internalNodes>
            0 -1 6 7.2003215551376343e-02</internalNodes>
          <leafValues>
            -8.8231575489044189e-01 4.9100506305694580e-01</leafValues></_></weakClassifiers></_>
    <!-- stage 3 -->
    <_>
      <maxWeakCount>3</maxWeakCount>
      <stageThreshold>-8.7595331668853760e-01</stageThreshold>
      <weakClassifiers>
        <_>
          <internalNodes>
            0 -1 4 6.8516023457050323e-03</internalNodes>
          <leafValues>
            -7.2619044780731201e-01 7.6190477609634399e-01</leafValues></_>
        <_>
          <internalNodes>
            0 -1 8 -2.4805405701044947e-05</internalNodes>
          <leafValues>
            8.0340325832366943e-01 -6.5033334493637085e-01</leafValues></_>
        <_>
          <internalNodes>
            0 -1 5 7.4988105334341526e-03</internalNodes>
          <leafValues>
            5.0057053565979004e-01 -1.</leafValues></_></weakClassifiers></_></stages>
  <features>
    <_>
      <rects>
        <_>
          20 41 28 57 -1.</_>
        <_>
          20 60 28 19 3.</_></rects>
      <tilted>0</tilted></_>
    <_>
      <rects>
        <_>
          24 0 12 16 -1.</_>
        <_>
          30 0 6 16 2.</_></rects>
      <tilted>0</tilted></_>
    <_>
      <rects>
        <_>
          26 3 8 1 -1.</_>
        <_>
          30 3 4 1 2.</_></rects>
      <tilted>0</tilted></_>
    <_>
      <rects>
        <_>
          26 3 5 42 -1.</_>
        <_>
          26 24 5 21 2.</_></rects>
      <tilted>0</tilted></_>
    <_>
      <rects>
        <_>
          36 0 12 82 -1.</_>
        <_>
          40 0 4 82 3.</_></rects>
      <tilted>0</tilted></_>
    <_>
      <rects>
        <_>
          36 47 8 39 -1.</_>
        <_>
          36 60 8 13 3.</_></rects>
      <tilted>0</tilted></_>
    <_>
      <rects>
        <_>
          48 4 52 96 -1.</_>
        <_>
          48 36 52 32 3.</_></rects>
      <tilted>0</tilted></_>
    <_>
      <rects>
        <_>
          51 49 9 38 -1.</_>
        <_>
          54 49 3 38 3.</_></rects>
      <tilted>0</tilted></_>
    <_>
      <rects>
        <_>
          68 2 6 1 -1.</_>
        <_>
          71 2 3 1 2.</_></rects>
      <tilted>0</tilted></_>
    <_>
      <rects>
        <_>
          71 73 3 3 -1.</_>
        <_>
          72 73 1 3 3.</_></rects>
      <tilted>0</tilted></_>
    <_>
      <rects>
        <_>
          98 11 2 16 -1.</_>
        <_>
          99 11 1 16 2.</_></rects>
      <tilted>0</tilted></_></features></cascade>
</opencv_storage>
